digraph Tree {
node [shape=box, style="filled, rounded", color="black", fontname="helvetica"] ;
edge [fontname="helvetica"] ;
0 [label="sepal length (cm) <= 2.45\ngini = 0.665\nsamples = 120\nvalue = [37, 44, 39]\nclass = versicolor", fillcolor="#f3fdf7"] ;
1 [label="gini = 0.0\nsamples = 37\nvalue = [37, 0, 0]\nclass = setosa", fillcolor="#e58139"] ;
0 -> 1 [labeldistance=2.5, labelangle=45, headlabel="True"] ;
2 [label="sepal width (cm) <= 1.75\ngini = 0.498\nsamples = 83\nvalue = [0, 44, 39]\nclass = versicolor", fillcolor="#e8fcf1"] ;
0 -> 2 [labeldistance=2.5, labelangle=-45, headlabel="False"] ;
3 [label="sepal length (cm) <= 5.35\ngini = 0.156\nsamples = 47\nvalue = [0, 43, 4]\nclass = versicolor", fillcolor="#4be78d"] ;
2 -> 3 ;
4 [label="sepal width (cm) <= 1.65\ngini = 0.085\nsamples = 45\nvalue = [0, 43, 2]\nclass = versicolor", fillcolor="#42e687"] ;
3 -> 4 ;
5 [label="sepal length (cm) <= 4.95\ngini = 0.045\nsamples = 43\nvalue = [0, 42, 1]\nclass = versicolor", fillcolor="#3ee684"] ;
4 -> 5 ;
6 [label="gini = 0.0\nsamples = 41\nvalue = [0, 41, 0]\nclass = versicolor", fillcolor="#39e581"] ;
5 -> 6 ;
7 [label="gini = 0.5\nsamples = 2\nvalue = [0, 1, 1]\nclass = versicolor", fillcolor="#ffffff"] ;
5 -> 7 ;
8 [label="sepal length (cm) <= 4.75\ngini = 0.5\nsamples = 2\nvalue = [0, 1, 1]\nclass = versicolor", fillcolor="#ffffff"] ;
4 -> 8 ;
9 [label="gini = 0.0\nsamples = 1\nvalue = [0, 0, 1]\nclass = virginica", fillcolor="#8139e5"] ;
8 -> 9 ;
10 [label="gini = 0.0\nsamples = 1\nvalue = [0, 1, 0]\nclass = versicolor", fillcolor="#39e581"] ;
8 -> 10 ;
11 [label="gini = 0.0\nsamples = 2\nvalue = [0, 0, 2]\nclass = virginica", fillcolor="#8139e5"] ;
3 -> 11 ;
12 [label="sepal length (cm) <= 4.85\ngini = 0.054\nsamples = 36\nvalue = [0, 1, 35]\nclass = virginica", fillcolor="#853fe6"] ;
2 -> 12 ;
13 [label="gini = 0.5\nsamples = 2\nvalue = [0, 1, 1]\nclass = versicolor", fillcolor="#ffffff"] ;
12 -> 13 ;
14 [label="gini = 0.0\nsamples = 34\nvalue = [0, 0, 34]\nclass = virginica", fillcolor="#8139e5"] ;
12 -> 14 ;
}